{"dense_2_weights": [["-64903616905212400"], ["-71139000356197360"], ["64985260367393496"], ["91101497411727904"], ["12416690587997436"], ["74558272957801824"], ["-149521410465240480"], ["132652074098587040"], ["-36884218454360960"], ["-19408851861953736"], ["88818281888961792"], ["-57073920965194704"], ["36135256290435792"], ["-116325929760932928"], ["-161506444215774528"], ["-16880914568901062"], ["-20031973719596864"], ["25291681289672852"], ["-140948191285133360"], ["-9435549378395080"], ["-38067221641540528"], ["150773346424102784"], ["-98467811942100528"], ["95123052597045904"], ["30411571264266968"], ["165900647640228256"], ["114451318979263312"], ["61664983630180360"], ["169992417097091680"], ["-29361411929130556"], ["10258615016937256"], ["-163207069039344800"], ["-31482443213462828"], ["52162468433380128"], ["105258166790008544"], ["140190243721008304"], ["-53774237632751464"], ["-99019497632980352"], ["54715275764465336"], ["91800838708877568"], ["-6696939468383789"], ["-141228213906288144"], ["-145231992006301888"], ["130190312862396240"], ["57219415903091432"], ["162983387708663936"], ["128415495157241824"], ["-116801664233207696"], ["-24405136704444884"], ["-52089057862758640"], ["-12245029211044312"], ["-106824442744255072"], ["172201126813888544"], ["34133106470108032"], ["61088785529136656"], ["44623166322708128"], ["140973776578903200"], ["-92336885631084448"], ["-7463365793228149"], ["-161856159567832960"], ["-45401498675346376"], ["153280168771743776"], ["-84533393383026128"], ["57732954621315000"], ["-83011455833911888"], ["-64974799752235416"], ["-154260724782943712"], ["124014049768447872"], ["-128982767462730400"], ["-86709752678871152"], ["1231536269187927"], ["-54593063890933992"], ["-35715058445930480"], ["-22253319621086120"], ["47067865729331968"], ["-153342381119728096"], ["45789167284965512"], ["-24696111679077148"], ["96043437719345088"], ["-142477169632911680"], ["-166411355137825024"], ["60650497674942016"], ["-68745061755180360"], ["45067518949508664"], ["120607137680053712"], ["-9184807538986206"], ["357016921043396"], ["94639003276824944"], ["39829432964324952"], ["54928332567214968"], ["42730703949928280"], ["65289095044136048"], ["91387808322906496"], ["119499742984771728"], ["152324318885803232"], ["-80600209534168240"], ["-145337328314781184"], ["-97824960947036736"], ["73794230818748480"], ["-104447804391384128"], ["100187420845031744"], ["-97563385963439936"], ["144169926643371584"], ["-161715075373649600"], ["-10865330696105958"], ["140103936195373536"], ["84958493709564208"], ["-111816272139549248"], ["65086141228675840"], ["12007892131805420"], ["97524553537368768"], ["-59010624885559080"], ["-53084887564182280"], ["-77186591923236848"], ["126927644014358528"], ["98711639642715456"], ["105789154767990112"], ["130387872457504272"], ["124850511550903328"], ["15067338943481446"], ["4071339964866638"], ["-78432582318782800"], ["-147274941205978400"], ["59965834021568296"], ["101350128650665280"], ["33721551299095152"], ["-34003630280494688"], ["-46985194087028504"], ["80587476491928096"], ["-47496393322944640"], ["-164338096976280224"], ["77769130468368528"], ["-85098631680011744"], ["-6297469139099121"], ["-80478325486183168"], ["-32884761691093444"], ["-56329697370529176"], ["-120526283979415888"], ["128515601158142096"], ["-137829750776290896"], ["-135350346565246576"], ["93137532472610480"], ["73900088667869568"], ["-159576326608657824"], ["-165471747517585760"], ["87714016437530512"], ["-78708484768867488"], ["-70320963859558104"], ["48225238919258120"], ["-18628090620040892"], ["-94754308462142944"], ["28273180127143860"], ["-125722765922546384"], ["38534477353096008"], ["168262124061584480"], ["-53134359419345856"], ["157229125499725344"], ["163552790880203232"], ["23517191410064696"], ["36895379424095152"], ["-67655026912689208"], ["-139953523874282832"], ["-54458737373352048"], ["-167430207133293152"], ["-135387003421783440"], ["97955346107482912"], ["159314304590225216"], ["44792726635932920"], ["167784303426742560"], ["58557957410812376"], ["-26537954807281496"], ["-72457201778888704"], ["-68891666829586032"], ["-242993235588073"], ["153608679771423328"], ["-80818325281143184"], ["119970470666885376"], ["85723638534545904"], ["-71569174528121952"], ["-146251797676086432"], ["121998995542526240"], ["-115145683288574224"], ["62614724040031432"], ["103052318096160896"], ["9988218545913696"], ["93645751476287840"], ["74409931898117072"], ["-63926242291927336"], ["27575507760047912"], ["-38143232464790344"], ["75373053550720208"], ["27584522962570192"], ["167877376079559328"], ["-97273431718349456"], ["160647004842758176"], ["70834174752235416"], ["-110311880707740784"], ["37283867597579960"], ["-96192173659801488"], ["-113905176520347600"]], "dense_2_bias": ["0"]}